// conv1.weight
const float conv1_weight[36] = {
-0.8143147, -0.19298159, 0.8163896, -0.5508529, -0.32683292, 0.5747784, -0.5224861, 0.18458685, 0.7385192, 0.3139504, 0.3400092, 0.52476877, 0.24286124, 0.31894895, 0.5058101, 0.43417543, 0.21919891, 0.80600214, -0.83622175, -1.0107071, 0.33371237, 0.07601662, 0.15327187, 1.1292918, 1.0796182, 0.9569766, -0.2219916, 0.7769634, 0.26548615, -0.81415683, 0.12927675, 0.8003168, 0.54173803, -0.35960656, 0.1003454, 0.8989207};

// conv1.bias
const float conv1_bias[4] = {
-0.51744044, 0.48305893, -0.04053952, -0.07438794};

// conv2.weight
const float conv2_weight[144] = {
0.21994019, -0.10543174, 0.32480142, 0.31896377, 0.5440969, -0.07363189, -0.6249795, 0.72485214, 0.2728016, -0.33064348, -0.19887966, 0.25953394, -0.28075075, 0.3885746, -0.39300638, 0.010065336, -0.25985324, -0.708933, 0.13809638, 0.56710887, 0.41418388, 0.5904656, 0.7969165, 0.040503517, 0.6083127, -0.059470434, -0.16378157, 0.07395229, -0.060216088, 0.19378087, 0.016384326, 0.20687388, -0.11880984, 0.26129183, 0.14306729, -0.032746587, -0.765578, -0.9881072, -0.6946579, -0.020081509, -0.4097706, -1.0801216, 0.14876293, 0.14514244, -0.31593245, -0.12574485, -0.4135725, -0.73374325, 0.09099187, 0.14703757, -0.34634903, -0.4563929, -0.16358125, 0.2160565, 0.26006386, 0.60488296, 0.4263933, -0.0038412774, 0.41932517, 0.51858574, -0.21366376, -0.29518265, -0.21556266, 0.028395692, -0.032785673, -0.39777994, 0.6781814, 1.0570785, 0.5717572, -0.39565122, 0.2663805, 0.75560457, 0.50484115, 0.25847238, 0.75401366, 1.2790223, 0.6949518, 0.87236035, 0.583414, 0.75711524, 0.16374466, -0.14462845, 0.36782095, 0.16375658, -0.20551504, 0.38729113, -0.5012117, -0.06588344, 0.4451088, -0.22387612, -0.5475116, 0.109166406, -0.31493053, -0.6102873, -0.19653316, -0.3773395, -0.30696377, -0.1434683, -0.15100002, -0.49963415, 0.029683499, 0.09636931, -0.47957933, 0.16872111, 0.46250883, 0.070887856, 0.513376, 0.48751357, 0.12501808, 0.105165765, 0.23508397, 0.10224257, 0.62144095, -0.83844626, -1.319141, -2.253816, -0.04682033, 0.0100290775, -0.042860333, 0.31145403, 0.32976198, 0.12773927, 0.06875716, -0.403309, -0.19096386, -0.38708398, 0.37214714, 0.26528558, 0.874972, -0.26658416, 0.33976626, 0.13352597, -0.7842993, -0.48661423, 0.4842472, -0.36014906, -0.059864603, 0.04938463, 0.5798477, 0.5519553, -0.53531295, -0.65132904, -0.19266194, -0.49657753};

// conv2.bias
const float conv2_bias[4] = {
-0.52077305, 0.14892644, -0.11626162, 0.33427313};

// fc1.weight
const float fc1_weight[3136] = {
-0.05323454, 0.25036237, 0.54601264, 0.12821718, 0.03491503, -0.31186363, -0.17072493, -0.86465997, 0.2845564, 0.282526, 0.27591392, 0.055413373, 0.033458117, -0.14802557, 0.3770309, 0.47859254, 0.26293537, 0.03957769, 0.13080238, -0.27899343, -0.014751958, -0.59857064, -0.630123, -0.5714049, 0.040027466, 0.29574725, -0.06880525, -0.41375315, 0.10209096, -0.11090379, 0.4288674, -0.19695675, -0.11769563, 0.018524516, 0.009002517, -0.42709357, -0.013800462, -0.11792194, 0.15480715, -0.040307485, 0.23500395, 0.4142773, 0.12654005, -0.49089482, 0.3356048, 0.30901587, 0.3456473, -0.2927053, 0.00036952764, -0.6081325, -0.616923, -0.19914585, -0.21121113, -0.09125056, 0.052283596, -0.6181124, -0.25049254, -0.07097899, -0.099872716, -0.06641643, 0.23781121, -0.05540553, 0.47829345, -0.24762982, 0.106303684, 0.36593905, 0.2284353, -0.0028022248, 0.3142029, 0.8400296, -0.3067793, 0.5198917, 0.5434794, 0.39613035, 0.2631488, 0.11978922, -0.216592, -0.26557505, 0.1205654, 0.10970548, 0.21192756, 0.07417446, -0.013848567, -0.08811623, -0.2303164, 0.42578015, 0.34160355, 0.15081793, -0.45449597, -0.5001174, -0.2000697, -0.09572121, 0.11964661, 0.01822955, 0.094505, -0.35789168, 0.21998303, 0.01630025, -0.19058092, 0.48736998, 0.03174619, -0.31464309, 0.22064848, -0.12355364, -0.06600707, -0.016133545, -0.1358767, 0.08356299, 0.06762727, 0.07582357, 0.086829714, 0.14959903, -0.28646907, 0.18072227, 0.5296618, -0.011104517, -0.5412376, -0.15622479, -0.09611835, -0.14403543, 0.23426324, 0.13480978, 0.18077084, -0.2531684, -0.46527606, -0.33156458, -0.13308235, -0.18526377, -0.1477767, -0.057971418, -0.07184977, 0.007816098, 0.42979422, -0.042805906, 0.04737169, -0.04510365, 0.26373503, -0.019100973, 0.51074994, 0.118540324, 0.18984827, -0.16175091, -0.12180849, -0.15184113, 0.052645795, -0.098659635, -0.38894567, -0.1467912, -0.17247334, -0.3796555, -0.8407319, -0.9358281, 0.33292714, -0.13435327, -0.769731, -0.1807949, -0.19646393, -0.332715, 0.41860104, 0.8174875, 0.19029333, -0.0028038057, -0.6233366, -0.32307905, -0.33251837, 0.5247962, 0.33128965, 0.2225324, 0.37177166, -0.058640584, -0.08259538, 0.19812743, 0.26474652, 0.27545056, 0.00051486824, 0.2509796, -0.22940044, -0.21362369, -0.06433597, -0.1483705, -0.5544289, -0.9437436, -0.4782246, -0.15922424, 0.06769889, 0.10029228, 0.030536883, 0.036098447, -0.3330208, -0.03657386, -0.08221358, -0.028811434, 0.051228374, 0.13070825, 0.30963638, -0.39937437, 0.08974043, 0.010422552, -0.07608199, 0.38005978, 0.08084083, 0.3425151, 0.3715355, 0.31768835, -0.112491556, -0.010825844, 0.0063218726, -0.11682606, -0.025516933, 0.39394972, -0.050240714, 0.19488068, -0.12018136, -0.06575857, -0.24436693, -0.3587276, 0.39769366, -0.2873717, -0.11878464, -0.05972049, 0.21300924, -0.4677884, -0.19376461, 0.3017912, -0.29507595, -0.2773657, -0.5504625, -0.013113076, 0.06359052, -0.07386394, 0.14999086, -0.34329602, -0.49286005, -0.21686289, -0.0012823184, 0.22636572, 0.16506714, 0.48544484, -0.35682428, -0.24023566, -0.03811496, 0.36824664, 0.5297841, 1.2024934, 0.19271879, 0.303049, 0.27393278, 0.3229047, 0.06701492, 0.25505188, -0.007821876, 0.30993906, -0.15958427, -0.14212114, 0.026861442, 0.060757134, 0.06956831, 0.10588159, 0.21678083, -0.20330149, -0.21588902, -0.08283767, 0.057184834, 0.26358104, -0.0031857507, 0.4720661, 0.31265196, 0.17099304, -0.06448559, 0.30646884, 0.28438318, 0.06469906, 0.2500004, 0.4115615, 0.5147515, -0.041515138, 0.3999615, 0.11267638, -0.29209617, -0.21388918, 0.37414384, 0.310144, 0.33480406, 0.20975162, 0.06145101, -0.22631915, 0.2256292, -0.7766314, 0.43731606, 0.8138138, -0.2972169, 0.114795305, -0.434, 0.080656715, 0.6446353, -0.11490281, 0.0079883, -0.27446797, 0.34774148, 0.1357044, 0.48304233, 0.07933565, 0.26143968, -0.2229503, 0.26208755, 0.24082002, -0.24116245, -0.0044432594, -0.3458062, -0.19971098, -0.15089586, -0.15775587, -0.18877746, -0.20215255, 0.35979787, -0.3493795, -0.02440926, 0.19753982, -0.018976646, -0.20943679, -0.13510597, 0.16241708, -0.012319492, -0.067037106, 0.19499828, 0.079491615, 0.122854985, -0.14008592, 0.088637955, 0.37073332, 0.32757846, 0.15382326, -0.45179173, -0.5309556, -0.1542669, 0.5363376, -0.13693495, 0.07309591, -0.2580721, -0.6487534, -0.7324099, -0.56388026, 0.5632583, 0.061921477, 0.20423014, 0.9203873, 1.8448172, 1.0050088, 0.3157389, 0.24999762, 0.1105314, -0.19590697, -0.22793178, 0.046908874, 0.06524311, -0.12062698, -0.048814543, 0.1393681, 0.16528481, 0.13090265, 0.1546365, 0.193927, 0.1074871, 0.34796435, -0.2862973, -0.015227283, -0.021733899, 0.19530042, -0.1267832, -0.04549179, -0.44453114, 0.19141746, -0.32083872, 0.19311292, 0.07625116, -0.12785698, -0.25884995, 0.02279681, 0.524478, 0.1986156, 0.19405937, 0.27885494, 0.22893019, -0.21305318, 0.16204727, 0.35437778, 0.14104123, 0.13865787, 0.18560779, 0.3684661, 0.26546592, 0.38120955, 0.2268476, -0.8688519, -0.16459547, 0.34030524, 0.21253254, -0.053501163, -0.24862947, -0.6897241, 0.07864759, 0.13416836, 0.050119266, 0.31483534, 0.5868071, 0.03830508, -0.006877893, -0.04314165, 0.12836118, 0.15362579, -0.0014840469, -0.063927665, -0.25545022, -0.010891816, -0.023355102, 0.10761836, -0.44361815, -0.17889607, 0.20440392, -0.38949165, -0.17411129, 0.02045156, 0.043853167, -0.1294635, -0.5572653, 0.20861144, 0.041385915, 0.045841105, -0.0001489895, 0.40802816, -0.27943984, -0.24090625, -0.35745445, -0.38341805, -0.17580985, 0.419814, 0.095395595, -0.5794584, -0.35240906, -0.6115823, -0.09373753, 0.4252191, -0.18703371, -0.019862656, -0.043393154, -0.3165273, -0.024103988, 0.39879927, 0.19710267, 0.42806843, -0.015358371, -0.19752388, -0.3213636, 0.011007518, 0.079025015, 0.10791598, 0.33409032, -0.05205275, 0.01152578, -0.045250136, -0.024884794, 0.70650536, 0.32625324, 0.22892745, -0.0028653368, -0.0993351, -0.4919936, -0.023102729, 0.078432605, 0.19908603, -0.05401257, 0.040738277, -0.24713476, -0.41679654, -0.031710893, 0.24352926, -0.44975442, 0.08274516, -0.01279041, 0.078692265, 0.031732205, 0.41907144, -0.3808271, 0.3199842, -0.35683268, -0.10384468, 0.4002609, -0.42109782, 0.03904862, 0.075304456, -0.22713731, -0.123590104, 0.24121915, -0.048728373, -0.24048351, 0.2258372, -0.10681274, -0.27519032, -0.14921322, 0.3421083, 0.42123827, 0.858714, 0.7808166, 0.29866788, -0.14487594, -0.046568718, 0.15530726, 0.23455456, 0.34637344, -0.11266681, 0.31788293, -0.01523857, -0.08528397, 0.13703309, 0.04512843, 0.19553316, 0.2283633, 0.014617734, 0.009849022, 0.06584908, -0.11205736, 0.13100308, 0.3356764, 0.09729476, 0.32803595, -0.48892212, -0.37089536, -0.110153235, 0.38708216, 0.35146147, 0.065099396, 0.4341109, -0.59231055, 0.29338282, 0.7706264, 0.7450688, 0.030993411, 0.4272239, 0.1678433, 0.4845284, 0.62002987, 0.5600867, -0.16640386, -0.2586324, 0.06969992, 0.31040618, 0.6502571, -0.33334118, -0.6748066, -0.6931994, -0.3563573, 0.48058736, 0.23790075, 0.063847736, -0.0004610178, -0.15095478, -0.46234336, -0.34673205, 0.29696974, 0.82981104, 0.30232635, 0.029095488, 0.23768291, 0.3222065, -0.12792626, 0.008709004, 0.49158692, 0.005072992, 0.29047439, 0.06748599, 0.09317639, 0.10739547, 0.176016, 0.11629862, 0.194113, 0.12815359, -0.269769, -0.006543926, -0.2283207, 0.12705985, -0.04757242, -0.1990946, 0.036865503, 0.117954314, -0.064769745, -0.14891805, 0.11487795, 0.3070671, -0.036181107, 0.009068226, 0.042295862, 0.05603226, -0.05538348, -0.019651435, 0.020469813, -0.008316898, -0.04107233, 0.09718585, -0.012995746, -0.008614638, -0.037808027, 0.07185322, 0.04978907, 0.013652825, 0.018301385, 0.022485264, -0.087388806, 0.005529403, 0.033433694, -0.002387515, -0.051382653, 0.036065996, -0.057867724, 0.010260822, -0.038211547, 0.010013418, 0.006884931, -0.029571636, -0.011734946, -0.07319605, -0.054745853, 0.046592712, -0.092662305, 0.054917462, -0.053969286, 0.0397793, -0.070100345, 0.018674646, 0.009732929, 0.006177834, -0.021273067, -0.029297197, -0.0168212, -0.060018543, 0.0101621, -0.008699239, -0.07839236, -0.06893291, -0.06392524, -0.00918822, -0.097800694, -0.03911665, 0.003275004, -0.08426267, -0.054698054, 0.002928208, 0.0037491242, -0.0896293, -0.073044464, -0.0016377, -0.066212595, -0.09447367, -0.05415087, 0.0076395744, -0.028976634, -0.030057728, -0.011613225, -0.016835416, -0.0054955217, 0.009631329, 0.06662137, 0.028028017, -0.06293132, -0.0399282, -0.011241498, 0.03767856, 0.034882534, 0.04143901, 0.038822334, -0.035804804, -0.0982226, 0.028831065, 0.04480717, -0.0505525, -0.057249613, -0.06415199, 0.06261809, -0.0482039, -0.056263633, -0.06726472, -0.035242375, -0.042775, -0.035104394, -0.054372426, -0.012617412, -0.10484979, -0.037675224, 0.07005438, 0.084803194, -0.008772441, -0.017271303, 0.012702811, -0.0701622, 0.008416235, 0.011114572, -0.06481435, -0.045528624, -0.090874165, 0.032771572, 0.041405, -0.042101014, -0.0122021455, 0.02758414, -0.054122876, -0.061217424, 0.018644556, -0.04354989, 0.040417448, -0.010642091, -0.09572087, -0.0023714185, 0.010659756, -0.02259244, 0.026155887, -0.012981933, -0.0795956, -0.04480872, 0.033117335, -0.07335389, -0.009238692, 0.018982306, 0.014780476, 0.030933555, -0.053850617, -0.015203828, -0.075179346, 0.032394484, -0.0051231678, 0.019541252, 0.024207152, -0.014074331, -0.05758265, -0.037506834, -0.04843725, 0.019459425, 0.029639252, 0.010158199, -0.0088869585, 0.011043412, 0.007871158, -0.07244492, 0.0052315383, -0.03960198, -0.05955211, -0.024804309, -0.06152972, 0.033794064, 0.022180162, 0.002454614, 0.04498751, -0.066056505, -0.052673463, -0.062448867, -0.068049185, -0.0750286, -0.072147146, -0.011255817, -0.062396646, -0.028660454, -0.04940314, -0.0027449979, 0.024100622, -0.023853218, 0.024079584, -0.042708747, -0.065771095, -0.028860884, -0.061336383, 0.008403382, 0.0807584, 0.0446628, -0.015163715, 0.0319452, -0.014026819, -0.062555686, 0.041020025, 0.00091665436, -0.035976354, -0.02440175, 0.020375062, -0.051885463, -0.041440867, -0.070939265, -0.08660059, 0.046499137, -0.8531663, -0.27967328, -0.34703824, -0.23402907, -0.06401906, 0.3612218, 0.18866791, -0.061559957, -0.07432986, -0.10986092, -0.09389718, -0.2822625, 0.22556946, 0.2640326, -0.13246723, -0.096306264, -0.007592671, 0.25630754, 0.18816489, -0.06459587, 0.9768845, -0.16833003, -0.18439685, -0.11880363, 0.026834676, 0.12442871, 0.044421393, 0.43853134, 0.21923134, 0.47770754, 0.28274447, -0.13899495, -0.08321664, -0.19178471, 0.5052384, 0.052559827, -0.1321382, 0.25569692, 0.1930345, -0.37607458, -0.03329999, -0.32507303, 0.052009515, 0.27790874, 0.08642303, -0.5340089, -0.5653823, 0.26193488, -0.37625444, 0.07630447, -0.014586727, 0.15909179, 0.23984177, 0.11916163, -0.3444733, -0.014340325, -0.34474677, 0.2720044, 0.5948497, 0.2465252, 0.16240256, 0.18399219, 0.0034688448, 0.0031968097, 0.597508, 0.44815516, -0.08266169, -0.39359158, 0.113442935, 0.5878977, 0.3256844, 0.5098911, 0.14777867, -0.35834622, -0.34963506, -0.52086866, 0.34536445, 0.021369683, -0.046313312, 0.122467846, -0.16996081, 0.11345216, 0.14618546, -0.21322514, 0.012985461, 0.019414617, 0.105211385, 0.099176265, 0.22189376, 0.0956779, -0.44731405, 0.30967298, -0.5431832, 0.28251234, 0.758534, 0.64568317, 0.23147024, -0.54356414, -0.29607505, -0.38138536, 0.17287892, 0.1405169, -0.05608632, -0.23413369, -0.3003401, -0.2142228, 0.0059328126, -0.19998798, -0.24856612, -0.6007223, -0.13040935, -0.14836204, 0.046656147, -0.036231942, 0.15034798, 0.52545965, 0.19234563, 0.46311364, -0.15722862, -0.111969166, -0.19313751, -0.042447228, -0.20917423, 0.2925852, 0.48737618, 0.1998947, 0.20569184, -0.017290547, -0.38245603, 0.046262965, 0.17683275, -0.16061722, -0.11279309, 0.32922262, 0.11851405, 0.23576577, 0.10114767, 0.5115977, -0.22772016, 0.1516446, 0.026439372, 0.04609958, 0.247935, 0.7916645, 0.67318994, -0.045635507, -0.19328429, 0.053684402, 0.64122885, -0.056563806, -0.64202416, -1.0143594, -0.57679194, -0.008682653, 0.53833, 0.2709509, -0.16705297, -0.7301184, -0.93671024, 0.143619, 0.5321293, 0.77998734, 0.58536464, 0.30052906, -0.14889449, -0.57012177, -0.1509718, 0.16778897, 0.21118186, 0.4976154, 0.11243086, 0.10339479, 0.5758179, 0.69811016, 0.03884501, -0.062975004, 0.055281926, 0.0037882754, -0.085536316, 0.29520783, 0.27265364, 0.07061549, -0.05078539, 0.11257013, -0.0044016982, 0.24230345, 0.11061287, 0.2416896, 0.0678724, 0.1882775, 0.1548453, 0.118912734, 0.10171096, -0.17563261, 0.049816407, 0.035845995, 1.0219519, 0.3521291, 0.5234476, 0.090331055, 0.23583846, 0.066853404, 0.120248206, -0.07358406, -0.06391488, 0.114195116, 0.06748335, -0.0193178, 0.008439999, 0.35234755, 0.4009075, 0.31615502, 0.44143113, 0.5824854, 0.21806861, -0.0036492348, -0.22325316, 0.17165631, -0.03862917, 0.30619398, 0.34108278, -0.009982872, 0.07114894, -0.15118775, -0.29109696, -0.29950404, -0.0050614043, -0.025118621, 0.062778525, 0.043917343, -0.34164658, -0.15990415, -0.20481545, 0.056355868, 0.056903463, 0.00076880486, -0.11787441, -0.14674279, -0.28445962, 0.20110394, 0.26569617, 0.39935148, 0.21933514, -0.08842716, -0.19815677, 0.22100423, 0.32474175, 0.11506747, 0.124425985, -0.23745175, -0.10191301, 0.1850759, 0.046258442, -0.17958926, 0.02640794, 0.014365668, 0.14297137, 0.068563744, -0.192394, -0.31504217, -0.16950828, -0.0698179, -0.15747456, -0.022131277, -0.17325708, -0.045221303, -0.011465108, 0.0055853804, 0.13118476, 0.19868456, -0.08453485, -0.07687464, -0.1639013, 0.13682726, 0.13025904, 0.18875466, 0.027186561, -0.044800863, 0.24884881, 0.103698045, 0.29238546, 0.08475244, 0.1075956, -0.13749632, -0.5444957, -0.34380323, 0.26156816, 0.91668314, 0.49587345, -0.2767892, -0.16866972, 0.30798802, 0.6935513, 0.07001901, 0.109317146, 0.38259062, 0.54021156, 0.1868722, 0.55259454, -0.21335632, 0.111983046, 0.0426939, -0.37256837, -0.18971197, -0.083688594, 0.21113317, -0.17517257, -0.20973334, -0.005788099, -0.086628914, -0.033361115, -0.15931012, 0.26961347, -0.40326142, -0.042709228, 0.28832945, 0.12861517, 0.30262604, -0.4977377, -0.27113166, -0.09446584, 0.15774898, 0.16543116, 0.05079435, 0.02518289, -0.039170757, -0.08492982, 0.025496919, 0.115313105, 0.14312969, 0.15182027, 0.06857546, -0.050465044, -0.19562617, -0.2818422, -0.062634975, 0.0025860765, 0.2646264, 0.23500252, 0.1547972, -0.5129334, -0.17908622, 0.026797213, 0.07587184, -0.5205671, -0.051915817, 0.8175883, 0.35500267, 0.14596857, 0.12678437, 0.28282315, -0.13925534, -0.4922086, -0.5249672, -0.5537327, 0.12726122, 0.3518708, 0.19427158, -0.14456928, -0.5078634, -0.41940123, -0.49176615, -0.3659157, 0.0567781, -0.56411356, -0.18358143, 0.15628038, 0.08973354, -0.16753104, -0.26845762, -0.2684737, -0.30843484, 0.03161229, 0.14159699, -0.048645005, -0.6223318, -0.2705638, 0.01922138, 0.14013313, -0.020840498, 0.20395702, 0.11567088, 0.03852337, -0.4599779, -0.007198028, 0.105368786, -0.031334363, 0.012170969, 0.03592303, 0.36986336, -0.22629541, -0.016686365, 0.3034056, 0.28029123, -0.06918541, 0.04484088, 0.23461626, -0.11074109, 0.059751984, -0.1091602, 0.15249287, -0.031948846, 0.004097267, -0.020666035, 0.08720313, -0.3962313, 0.19768992, -0.09348826, 0.029853921, -0.10685664, 0.14572062, 0.2657656, -0.3879887, 0.29547065, 0.29203412, 0.20107777, 0.14155473, 0.05248227, 0.06952647, 0.027378893, 0.85146487, 0.74152404, -0.061364155, 0.4087417, -0.18476214, 0.092884086, 0.1769553, -0.28773952, -0.34642038, -0.07301241, -0.07876903, 0.042657807, -0.46953928, -0.8117657, -0.4952132, -0.6600174, -0.13114703, -0.10670929, 0.6643254, -0.4221913, 0.046432287, 0.012831808, 0.21263513, 0.22861274, 0.2771179, 0.27793396, 0.50658864, 0.1680475, 0.20768063, 0.03929332, -0.046662837, 0.0106994035, 0.04402558, 0.2991626, 0.4257476, 0.362732, 0.19112995, 0.30456457, 0.054832116, 0.3087663, 0.23653798, -0.30315876, -0.032510377, 0.015811997, -0.3109656, -0.029336348, 0.16580555, 0.17399931, -0.58055013, -0.3960643, -0.3920774, 0.020534629, 0.36260965, -0.04248507, 0.013278666, -0.6031267, -0.054147348, -0.11785237, 0.12597844, 0.09623749, -0.24970885, -0.6477, 0.072060436, -0.5568938, 0.42466274, 0.34625006, 0.2539364, -0.052593313, 0.13497765, -0.2286183, 0.05849054, 0.00731835, -0.011903503, -0.038366877, 0.4821292, 0.09913081, 0.12289772, 0.08343876, 0.079722844, 0.028029075, 0.23884377, 0.75798, 0.05222178, 0.35192755, 0.20234129, -0.014514186, 0.04394118, 0.5577788, 0.5183885, 0.11321763, 0.07208396, 0.0012985523, -0.0020879295, -0.11062376, 0.21761939, -0.18850853, 0.6528089, 0.12773126, -0.035868853, 0.24198322, 0.08093477, 0.048700605, 0.52708966, -0.02462131, 0.20606692, 0.12745906, 0.5787602, 0.20251907, -0.17137323, -0.21898869, -0.86357915, 0.47984615, -0.010310267, -0.351575, -0.26034597, -0.5550945, -0.105270125, -0.19474474, 0.39757764, 0.36030617, -0.17155167, -0.045256525, 0.2579285, 1.0829498, 0.5257877, 0.28694126, 0.104406185, -0.14194065, -0.20074077, -0.34114403, 0.13442829, 0.12202971, -0.36636153, -0.36338404, -0.31516773, -0.06386435, 0.10866123, 0.19144142, 0.07288641, -0.32688096, -0.48279738, -0.5164054, -0.34387544, 0.095047854, 0.10958965, 0.020949133, -0.051309858, -0.159296, -0.73406374, -0.49739477, 0.17727348, 0.609126, 0.3706325, 0.09545914, -0.29157302, -0.14292617, 0.22612047, 0.08317951, 0.2856725, 0.20892082, 0.46563375, 0.19141723, 0.20481445, 0.08895207, 0.025976779, -0.15121429, 0.23588505, 0.01203391, 0.0026714434, 0.043857988, -0.057372283, 0.01866744, -0.014657479, -0.046243493, -0.0421544, -0.063890174, -0.0046247174, 0.019914895, 0.04678306, -0.078654066, -0.051928725, -0.06758328, -0.031842873, -0.0036177519, -0.0103323925, -0.073809505, -0.060071837, 0.008337761, -0.062484276, 0.02314986, 0.039788973, 0.023981715, -0.01377981, -0.051642213, 0.0134274755, -0.0050409148, 0.005391823, -0.0064766575, -0.07272994, -0.065257385, 0.023677777, -0.06498437, 0.018129366, 0.004243634, 0.019335926, 0.019236974, -0.060275402, -0.08255852, 0.03417422, 0.0203068, -0.09163725, -0.05828017, -0.060689177, -0.010509905, -0.03062211, -0.0537866, -0.075211115, -0.08030594, -0.060495354, 0.04404303, -0.056794334, -0.03982505, -0.05305685, -0.037332147, 0.041765556, 0.044441953, -0.077525206, 0.019519659, 0.007905848, 0.044768896, -0.05923162, -0.042690158, -0.036023732, -0.052728523, 0.05275391, 0.03701348, -0.05390861, 0.033142127, 0.008196361, 0.030228002, -0.05012725, 0.011822989, 0.04888945, -0.02468816, -0.01594803, -0.00028564004, -0.0054362705, -0.06768824, 0.026771948, -0.06256368, -0.0474773, -0.09116488, -0.016535418, -0.053078726, 0.03514456, -0.037484437, -0.07823268, 0.044999536, -0.036302056, 0.01665652, -0.020286173, -0.07231666, -0.018170042, 0.04196152, -0.08923619, -0.06905235, -0.092296675, -0.057815857, 0.0031552073, 0.017690944, -0.026510626, -0.0023102178, -0.031486504, -0.00025679095, 0.042526048, 0.027743557, 0.022629378, -0.061539937, 0.022559648, -0.060565047, 0.02158558, 0.00935478, 0.018837782, 0.039227143, -0.008306733, -0.075457945, -0.060744867, 0.00019684278, -0.074287, -0.06906967, 0.012497779, -0.00951507, -0.052291963, -0.070398875, -0.09540019, 0.036150914, -0.053880006, 0.028202668, 0.026701907, -0.07831796, -0.036903247, -0.041144285, 0.009346354, -0.01111525, -0.083686925, 0.036869768, -0.050062973, -0.0071248687, 0.0011620626, 0.052610002, 0.01352786, -0.036785357, -0.05033345, 0.046887796, -0.085404985, -0.028937805, -0.059666663, 0.08080183, 0.025007145, 0.025150787, -0.005654877, -0.00012215874, -0.080635846, -0.06719501, 0.0031035733, -0.027051622, -0.080620036, -0.072531775, -0.055515513, -0.058584716, -0.06839131, 0.01981996, -0.052595634, 0.019401606, -0.06936122, -0.035024457, 0.0532321, -0.058284856, -0.021271251, 0.016473826, -0.04815893, 0.02205693, 0.019924335, -0.035410114, -0.027673177, 0.0125032645, 0.01587206, -0.04869562, 0.053000752, 0.038433854, -0.034020547, -0.07676164, -0.07998782, -0.08380189, -0.041809555, 0.029941872, -0.053418983, -0.042498685, -0.07735171, -0.05927132, 0.040635906, -0.088846266, -0.05085933, 0.20709056, -0.006688351, 0.0478684, -0.10376888, 0.4373578, -0.13458654, -0.20091633, 0.36065128, -0.4473509, -0.34335265, -0.23134324, 0.043629028, 0.41349682, 0.32075334, 0.0036213961, -0.38813335, -0.10563315, -0.18009506, 0.23086037, 0.25098082, 0.17835745, 0.5637735, -0.29250845, 0.26523396, 0.16097082, -0.06456014, -0.35880634, -0.009187375, 0.017901167, 0.0009808064, -0.04743143, -0.36811477, 0.11667706, -0.10254831, 0.102518834, -0.48269874, 0.17868684, 0.054536313, -0.019891448, 0.14773382, 0.26162642, 0.04149473, 0.52362025, 0.11403812, 0.3765834, 0.4307973, 0.64060956, 0.43767962, 0.32938567, 0.41702127, -0.21571606, -0.24502477, 0.16375266, 0.2829939, 0.10640392, -0.17703268, -0.086297914, 0.13062376, 0.4571348, 0.19906507, 0.13146193, -0.004715745, -0.9003788, -0.17432557, 0.49367628, 0.51377386, 0.26531562, 0.05235605, 0.15882577, 0.06552252, 0.038263433, 0.002384273, 0.05891484, -0.31232893, 0.3357669, 0.026377438, -0.18637215, 0.36178234, 0.023217175, -0.101059146, 0.0801046, 0.24228892, 0.033956673, -0.2138747, 0.3490753, 0.26093742, 0.14611936, -0.032096792, -0.4164806, -0.6097321, 0.11732064, -0.20776956, 0.24528934, 0.15450086, -0.15054353, -0.5801793, -0.46582708, -0.21661277, 0.47064394, -0.13911118, 0.04544912, 0.27609706, 0.12972976, -0.501522, 0.12328558, 0.008326551, 0.14762695, 0.04091115, -0.29815936, -0.31000444, 0.3874476, 0.14229108, 0.24654962, 0.077593125, -0.2515628, 0.1776388, -0.04121585, -0.32373637, 0.12180698, -0.042658474, -0.29525524, 0.1533194, 0.47745708, -0.21226916, -0.109941415, 0.14353096, -0.17475304, -0.020345237, -0.24376498, 0.28193626, -0.080038995, 0.01718549, 0.4561872, 0.3294025, 0.010958863, 0.050529458, 0.055932876, 0.11341205, -0.37524948, 0.64553195, 0.18765858, 0.2269517, 0.3237409, 0.20202646, 0.26035833, -0.129882, 0.20378667, 0.09529916, 0.15580465, -0.4691374, 0.6007366, 0.25140584, -0.1820017, 0.06429918, 0.08097769, 0.33275726, 0.3940613, 0.089808404, -0.21114802, 0.119580075, -0.20226824, 0.21220723, 0.32849172, 0.2967954, 0.28014213, 0.14933023, 0.43303043, 0.33666265, 0.29358664, 0.52993023, 0.10409769, 0.13049418, 0.55428517, -0.03376827, 0.15724942, -0.44280446, 0.06909251, -0.007646029, -0.25412917, -0.14937328, -0.28137258, -0.18231642, -0.24838245, -0.025982574, -0.02906662, -0.038619455, -0.16383749, -0.25812778, -0.30768174, 0.067637704, 0.12591757, 0.2084546, 0.08213808, 0.0036895038, -0.04710366, 0.2776977, 0.039175656, -0.5318903, -0.5649661, -0.22493993, -0.08820225, 0.04020556, 0.32557356, 0.10509723, 0.22900906, 0.017000558, -0.3071164, 0.035988204, -0.07435253, 0.051662542, -0.18781474, 0.04703861, 0.33156493, 0.26447025, 0.24114227, -0.049887866, -0.118237145, -0.3587241, 0.31448883, -0.103841014, 0.037496928, -0.25391838, 0.14326292, -0.32533354, 0.17304471, -0.39492694, -0.4918118, 0.05767282, 0.26735434, -0.017912691, 0.13227466, -0.14027505, -0.18682894, 0.18443719, 0.7065033, 0.23432861, 0.0849674, -0.007359358, 0.38916793, 0.6993962, 0.34766853, 0.03154151, 0.19543694, 0.30607846, 0.43776974, -0.044275444, -0.40019813, 0.036698904, 0.42574027, 0.37831828, 0.23648463, -0.18520333, 0.10515548, 0.3537501, 0.18478315, -0.074359834, -0.10055967, -0.16960649, 0.13997963, 0.4747639, 0.18592432, -0.072740994, -0.11828844, 0.27829522, -0.020754442, -0.06122452, -0.12398816, -0.20538917, 0.16542438, 0.22016057, 0.31908533, 0.40356806, 0.1139818, 0.020301258, 0.0046703443, 0.4406983, 0.3429938, -0.14466754, -0.08708841, -0.75110584, -0.039422985, -0.07122849, 0.14393564, -0.008591707, -0.4187708, -0.49394393, -0.3931305, 1.6265439, 0.16873562, 0.17256996, -0.48462474, 0.20974514, 0.04817558, 0.5518221, -0.04982044, -0.044601217, -0.3641258, -0.34417543, -0.31523734, -0.08816747, 0.2560194, -0.05438282, 0.44158304, 0.14405343, 0.25052595, 0.21761802, 0.04644084, 0.31053558, -0.03635963, 0.07187549, 0.17327897, 0.018730834, -0.16308944, 0.061144397, -0.32564157, 0.37003657, 0.36834863, 0.3207327, -0.175493, 0.44706175, 0.33440292, -0.6959429, 0.42485628, 0.14259478, -0.03944282, -0.21793954, 0.02000587, 0.20004745, -0.12965715, 0.33054698, -0.069427826, -0.31962764, 0.0657976, 0.13663623, 0.19559567, 0.04211432, -0.46319598, -0.15435477, 0.30186218, 0.031145832, -0.16270256, 0.3768185, 0.0022369702, 0.055755813, -0.2563624, -0.26143166, -0.8235611, -0.31210926, 0.28102046, -0.057135426, -0.100481845, -0.33800203, -0.059697613, -0.108924046, 0.051130667, 0.13804996, 0.023215301, 0.052779775, -0.11869215, 0.2727117, -0.028198896, -0.03897432, 0.67118716, 0.2698467, -0.2325316, -0.10053595, 0.020984806, 0.57541704, 0.18435009, -0.008758107, -0.47090885, 0.07363678, 0.30818376, 0.20949835, 0.22319204, 0.19469175, -0.055025652, -0.8063376, -0.23359776, 0.07683569, -0.17145903, 0.0029681658, -0.15242466, -0.3115026, -0.38170475, -0.5000097, -0.060090594, -0.15044005, 0.103993125, 0.07693191, -0.16380557, -0.133988, -0.04994898, -0.06850198, 0.0021881303, -0.057506643, -0.07961849, -0.06849345, -0.088714175, -0.023407696, 0.0008512185, -0.056254447, -0.055080965, 0.010897534, -0.03834728, -0.082333714, -0.026342578, -0.005000972, -0.05426933, -0.014818523, -0.038569044, 0.006895382, 0.005690115, -0.06737508, -0.08994755, -0.01958667, 0.011784807, -0.022300532, -0.008762456, -0.026811365, 0.003531776, -0.07088575, -0.097656704, 0.037400004, -0.016424958, -0.02871147, -0.0043974617, -0.069483265, -0.076935835, -0.08361815, -0.06573972, 0.028131483, 0.0037703926, 0.007829757, -0.06394063, -0.04605409, -0.0061706277, -0.09156667, -0.035854954, -0.05803601, -0.03443237, -0.037988495, -0.026674734, -0.049247414, -0.010671204, -0.0305075, -0.04095302, -0.031612948, 0.0064012413, -0.031599525, 0.0065408912, 0.041660424, -0.018637987, -0.02265082, 0.010149547, -0.08477849, -0.021328654, -0.07465326, 0.025491135, -0.097024016, 0.040054366, -0.07430257, -0.029713517, -0.036274858, -0.017375816, -0.024517577, -0.06001609, -0.08139983, -0.0121005, 0.0041306526, -0.02929039, 0.0012598304, 0.015945813, 0.017027875, -0.028926704, -0.015225664, -0.017734755, -0.08751269, -0.013613092, -0.06514021, -0.056878697, -0.022821717, 0.03219569, -0.075783975, 0.015966073, -0.08861696, -0.09823358, -0.0018367545, -0.042623553, -0.011944735, 0.037067473, 0.031829283, -0.00041750565, -0.006242674, -0.021737201, -0.08561691, 0.009826049, -0.03353817, -0.09230563, -0.06061193, -0.04351822, 0.005703721, -0.0761544, -0.049498685, 0.026706317, -0.099320985, -0.07479134, 0.005601557, -0.019147212, -0.007812884, 0.029834239, -0.09488442, -0.08804852, -0.09572286, 0.026169922, 0.005206968, -0.030356163, 0.034841742, -0.07112018, -0.0754182, -0.087465264, 0.015478312, -0.03018015, 0.03193387, 0.0150681855, 0.03834487, -0.0031806251, -0.074918896, -0.0036994237, -0.07530881, 0.03297999, 0.014191726, -0.057785667, -0.050099786, -0.062278297, -0.09589462, -0.040594332, -0.030091824, 0.027585836, -0.021185484, 0.060728144, -0.05970552, 0.013839895, -0.009310409, -0.045242988, 0.02059172, 0.03734455, -0.0058879615, 0.017577987, -0.0639058, -0.09793816, 0.043863457, 0.006640672, -0.09412454, -0.057813287, 0.04148788, 0.035065424, -0.03744248, -0.0016179091, -0.03430598, 0.0030767715, 0.010189033, -0.047527652, -0.08617378, -0.01996759, 0.023155393, -0.0753639, -0.015193426, -0.03690006, -0.01288812, 0.00046845558, 0.027695404, -0.09158753, -0.08558143, 0.021446293, -0.04445221, 0.016680973, -0.051552337, -0.02389264, 0.0142260585, -0.06660626, 0.0061404845, -0.0057412107, -0.029841108, -0.07570139, -0.07824477, 0.0013274779, -0.029242225, 0.03605325, 9.0507536e-05, -0.015426267, -0.01997854, -0.07567958, -0.08099952, 0.012012843, -0.057457104, 0.041492224, -0.09281087, -0.0064846626, -0.08592936, -0.04560096, -0.008597236, -0.076888055, 0.03098003, 0.031770844, -0.05055243, -0.074546546, 0.009520749, -0.028223101, -0.03810492, -0.055391375, -0.004089951, -0.015793476, -0.07235409, -0.011631384, 0.03977176, -0.08229707, -0.06597652, 0.007292019, 0.0008669155, 0.014741426, -0.0014827898, 0.0026930033, 0.050977707, -0.025572183, 0.060534902, -0.031502843, -0.016118838, 0.068760395, -0.026503043, 0.008804349, -0.021217722, 0.036130562, 0.0025806634, 0.0064891023, -0.07051997, -0.07409245, -0.04788367, -0.034007292, -0.03869665, -0.0017034, -0.047956683, -0.0343709, -0.0018540113, 0.030027166, -0.07027773, -0.11387293, -0.03718686, -0.009762703, -0.020675037, -0.029609274, -0.071882464, -0.106019504, -0.06977006, -0.04551894, 0.0047841533, -0.09432432, 0.029239865, -0.040023852, -0.075370036, 0.0026168413, -0.050093524, 0.025435904, -0.112791546, 0.034478616, 0.055988673, -0.05510065, 0.022477083, -0.017489864, -0.058775052, 0.023439705, -0.005052068, 0.011807709, -0.08309123, 0.050951183, 0.02730169, -0.0012400082, -0.08357806, -0.06306591, -0.019646179, -0.0315296, -0.0704234, -0.024873383, 0.014605565, 0.020278892, 0.02542435, 0.04149166, -0.047512062, -0.029740615, -0.039240748, -0.05560028, -0.08294916, -0.06425367, -0.023573317, -0.051573116, -0.022097556, -0.05883874, -0.08969355, -0.005741013, 0.010864519, -0.063971825, -0.028750924, -0.02648011, -0.018577429, -0.04752014, -0.03244464, -0.041201856, -0.106498495, -0.09905866, -0.0337589, -0.11305933, -0.034642022, -0.03204514, -0.03164692, 0.0023654765, -0.056786127, -0.097458296, -0.03412391, -0.02573428, -0.00833822, 0.004068881, -0.033870738, -0.070384465, -0.06613597, -0.029729526, -0.05189288, 0.0018635059, 0.008962447, -0.02796746, 0.02508046, -0.04132893, -0.013942792, -0.0149715915, -0.057065327, -0.035912763, -0.0054244814, 0.027032008, -0.04445047, -0.0050082193, 0.04874256, -0.0642271, 0.041826375, -0.01659596, 0.018192241, 0.042563345, -0.051092416, 0.039763417, -0.058060758, 0.002144421, 0.023591869, -0.0196578, -0.0037071418, -0.044997588, 0.011891958, -0.013320677, -0.039666124, -0.09842766, -0.017259741, 0.048152626, -0.08685674, -0.083341785, -0.026157534, -0.07638004, -0.043372806, -0.013017467, -0.015514205, -0.049788933, -0.03859367, -0.001692455, -0.06539771, 0.0035445641, 0.035907086, -0.1032794, 0.007572175, -0.101922184, -0.08110419, 0.011790761, -0.10060308, 0.029513018, -0.08657169, 0.005398892, -0.044923317, 0.0039516, -0.02549327, 0.009051801, 0.0029152331, -0.08920366, -0.08571004, -0.029163504, -0.036396764, -0.040161487, -0.008928647, 0.018851222, -0.09024025, -0.006387595, -0.090296336, 0.015928328, -0.0067743133, -0.022510927, -0.0681663, -0.0025300118, -0.014842794, 0.020785788, -0.02423581, -0.056913044, -0.037123658, -0.0196836, 0.041119073, 0.046802867, 0.015877184, 0.03608536, -0.017207386, -0.068956226, -0.05213798, 0.003671943, -0.022570932, -0.028159581, -0.08816852, -0.0028030216, -0.06637021, 0.016203156, -0.07478471, 0.057715103, -0.043955736, 0.05128699, -0.07509666, 0.035362095, -0.0615453, -0.046186175, 0.01725338, 0.0132779665, 0.016173268, -0.039819103, -0.037734326, -0.0031804505, 0.039892398, -0.011569114, -0.047614407, 0.0424867, -0.07990816, 0.018589107, -0.008791219, -0.01633726, -0.08325012, -0.046601564, 0.009331898, 0.034520622, -0.056674864, -0.0027902194, 0.01185901, 0.016472695, -0.015236089, -0.022257116, 0.00014900454, -0.03686107, 0.011061473, 0.031957425, -0.0067895357, 0.045581914, -0.08389676, -0.02182817, 0.030248133, -0.039003447, -0.05822985, 0.039494727, -0.03765627, -0.018230118, -0.017246593, -0.0134644965, 0.05620655, 0.0029662326, 0.057547245, -0.04284071, -0.038165055, 0.033494536, 0.022444459, -0.0052219387, 0.042691186, -0.036812708, 0.053592872, -0.054932866, 0.010195371, 0.030127473, 0.00052829523, -0.0013477604, -0.06532246, 0.00456585, 0.028508123, -0.07415746, -0.02476849, -0.03530043, -0.02429967, -0.010071005, -0.06804001, -0.027823312, -0.018239705, -0.05029141, -0.03414757, -0.042236432, -0.050071083, 0.011203976, -0.0666699, -0.049913608, 0.054862387, 0.05040189, -0.057540182, -0.011355784, 0.02511089, 0.0252728, -0.060152918, 0.009330973, 0.012111462, 0.031602133, -0.079972476, -0.07736526, 0.012718173, -0.0066698957, 0.04186348, -0.01200785, -0.035612747, 0.04630943, -0.07605176, -0.024043422, -0.037772693, -0.074152835, -0.032800317, -0.0033909383, 0.04306015, -0.06622925, -0.0015318317, 0.040623736, -0.06496375, -0.011584519, 0.041793305, -0.03727383, -0.04798698, 0.043608215, 0.020196415, -0.040769503, -0.00082058145, 0.010803435, 0.033359546, 0.04166359, -0.0497159, 0.052684765, -0.07421323, 0.040320307, 0.043629117, -0.011230944, -0.06480904, 0.04223934, -0.040499043, 0.017048387, -0.061938602, -0.052462153, -0.005960088, -0.017860513, -0.046885923, -0.066223525, 0.023951733, -0.0030557292, -0.039696436, 0.02107908, -0.04992659, 0.028187878, 0.04884422, 0.026501812, -0.011957707, 0.048545092, -0.05778061, -0.08016488, 0.0074057984, 0.047826253, -0.050778758, -0.019930728, -0.052796725, -0.039586917, -0.053214733, -0.08201935, -0.034317456, 0.016519671, -0.042476773, -0.07389034, -0.0014040018, -0.04125789, -0.05441298, 0.06473612, 0.013252192, 0.026976801, -0.032577038, -0.06338455, 0.057929397, -0.07332287, 0.026716124, -0.023933066, -0.04665613, 0.02151207, -0.036885817, -0.059371974, 0.0001562111, 0.039873034, -0.015319035, 0.016143408, 0.009898269, -0.056580774, 0.05040078, -0.037574522, 0.022395436, 0.05592691, 0.029291932, 0.063579865, 0.0023623088, -0.040204212, -0.008237281, -0.045407295, -0.07070464, -0.05417323, -0.022494635, 0.054077942, -0.07450761, 0.056184273, 0.021600116, -0.01335103, 0.05332916, 0.05408956, -0.053673178, -0.04882139, -0.07713849, -0.05298149, 0.055005603, -0.074190274, 0.023767462, 0.055181123, 0.031035429, -0.067652054, 0.046195187, 0.020261565, -0.019461248, 0.05704872, -0.021604247, -0.07142313, 0.030055532, -0.02997418, 0.033594064, -0.048532225, 0.00017086884, 0.044426277, -0.06106996, -0.033266544, -0.015617741, 0.04580535, -0.042310137, -0.005851408, 0.00690528, -0.022623219, -0.07502837, 0.0030164279, 0.038010255, -0.039432682, 0.011640437, -0.07048866, -0.07028907, -0.011102618, -0.013510114, -0.07501924, -0.044700302, -0.059414573, 0.0036880749, -0.0019688108, -0.051528245, 0.059694473, 0.026234185, 0.03604809, 0.065122046, -0.046303917, 0.036596358, -0.041924372, -0.039352417, 0.018223833, 0.01421727, 0.0203063, -0.05846456, -0.04201483, -0.073743, 0.036301237, 0.04668043, 0.02926464, -0.030682748, -0.028255606, 0.0068906224, -0.022840274, -0.07620547, -0.024282314, -0.019143276, -0.009465763, -0.06411041, -0.008606027, -0.028956523, -0.03245061, -0.07444356, -0.0008141635, 0.0184148, -0.027671559, -0.06355951, -0.048170403, 0.061253436, 0.047287192, -0.06710407, 0.005871546, -0.04954871, 0.027850607, 0.016517758, 0.022585107, 0.034430113, 0.028237944, -0.062040653, -0.07363548, -0.03539651, 0.010763152, -0.07705892, -0.023683736, 0.04329189, -0.011328167, -0.035778157, 0.030438174, -0.013329916, -0.052689534, -0.06286632, -0.04253763, 0.040972847, 0.06179918, -0.07107994, 0.0006112024, 0.0534087, -0.052745122, -0.0069667534, 0.028267099, -0.005395241, 0.021784116, 0.02169883, -0.041628215, 0.018358838, 0.03710339, 0.033788588, -0.043512225, -0.015272917, -0.035105594, -0.020556975, -0.0005804885, 0.0004784533, -0.021873146, 0.0535357, -0.06685925, 0.059705924, 0.029802095, -0.0084718345, -0.0045625134, -0.03401022, -0.04791328, -0.026687643, -0.07614688, -0.007344669, -0.07600174, 0.056880236, 0.03837759, -0.041505475, 0.025138652, -0.0764736, -0.016761793, -0.06171645, -0.049094327, -0.025127577, 0.0524466, -0.07266125, 0.026452726, 0.025476556, -0.04218577, 0.023835925, 0.0074279113, -0.062306155, -0.057952307, -0.07502482, 0.030143552, 0.042508163, -0.029786007, 0.041859567, -0.07899104, 0.036804743, -0.06652594, 0.020276416, 0.081760325, 0.0048981393, 0.0085425, 0.04304999, 0.037725396, -0.0525782, 0.011285046, -0.006863582, 0.05593061, -0.0046454603, 0.012599501, 0.03999671, -0.03716961, 0.01581527, -0.024501061, -0.06517165, -0.030179476, -0.045651663, -0.078931294, 0.009394048, 0.049297478, -0.02823806, 0.026965866, -0.040038753, 0.01634038, -0.06874338, -0.0222632, -0.008431147, -0.076951034, -0.040533815, -0.012090335, 0.048809998, 0.04899788, -0.040822335, -0.046801798, 0.0009341402, 0.034893803, -0.03798467, -0.08162096, -0.067136146, -0.040207308, 0.00881072, 0.03242717, -0.034399282, -0.006932312, -0.0053461813, -0.02915243, -0.026454672, -0.016473576, 0.037910394, -0.0037650901, 0.043077353, -0.09217273, -0.0075632017, -0.033091802, -0.06411067, -0.056249626, -0.009817586, -0.033476908, 0.0053359037, 0.03596557, 0.021106424, -0.045891732, -0.054743566, 0.047124397, -0.03240665, 0.003148479, -0.054029807, 0.023744619, 0.0006235691, 0.023225037, -0.016044958, -0.024404375, -0.018525044, 0.00877073, -0.058912035, -0.01826457, 0.04373599, -0.050926022, 0.05989306, -0.03319952, -0.017313551, 0.009814947, -0.0729686, -0.010360961, 0.016795518, 0.043937817, -0.027777577, -0.00051419745, -0.03238847, 0.030932251, -0.04561838, -0.06947351, -0.04027101, -0.06622108, -0.07773402, -0.09270635, -0.0013067751, -0.03304606, 0.04120274, -0.09169356, -0.032877613, -0.0644628, -0.038626086, -0.06730771, -0.054556645, -0.058244396, 0.025655424, -0.0907691, -0.047830377, -0.008629429, -0.048138548, 0.016712384, -0.054832276, -0.045462392, -0.019484166, -0.06423309, -0.013829229, -0.016684545, -0.007570203, -0.076228894, -0.041569814, 0.027868694, 0.037770838, 0.011337917, -0.033444468, -0.055071313, -0.01601474, 0.0616923, 0.0020986148, 0.011079011, -0.03876868, 0.01761073, -0.06384604, 0.031947657, -0.014434648, -0.034270365, -0.064654775, -0.08423102, -0.030010665, -0.054359633, -0.042501424, -0.00014582713, 0.027601216, -0.008294827, -0.021029975, 0.0030857811, -0.05959782, 0.028164143, -0.07926464, -0.07088329, -0.05180451, -0.0027212237, -0.03739766, -0.02083761, -0.020741204, -0.04109522, 0.00480284, -0.08660459, -0.034251176, -0.086707756, -0.037097543, -0.066627674, 0.007028941, 0.014728283, 0.03436494, 0.02760908, -0.012435025, 0.034963947, -0.0910053, 0.031199375, -0.07896984, -0.07988592, 0.04843721, 0.009500997, -0.08824253, 0.011626062, -0.054316383, 0.0033595725, 0.000314861, -0.054266028, 0.01486799, 0.10814011, 0.36737874, 0.8482959, -0.39691618, 0.20222048, 0.07828814, -0.004456199, 0.14468727, -0.08145965, -0.0616631, 0.19928285, 0.11139802, 0.066876896, 0.42042115, -0.003519154, -0.38693333, -0.2923089, -0.15390144, 0.16716814, 0.19085912, 0.18444851, 0.016521376, 0.13111345, -0.14717616, 0.1826007, 0.077121384, -0.0797394, 0.07669842, 0.10221757, 0.3876231, 0.30825722, -0.1094494, 0.11996319, 0.029649878, 0.14488544, 0.23032731, -0.110479385, -0.08917059, 0.018310295, 0.24200635, 0.14157471, 0.14789957, -0.6092049, -0.45591187, -0.14731558, 0.37450406, 0.376099, -0.15999153, -0.012991043, -0.0053311507, 0.6796547, 0.42438087, 0.30917892, 0.3119982, -0.002266617, -0.0043381914, 0.5160715, 0.106071, 0.25450867, -0.33645257, -0.3769115, -0.36108205, -0.13283981, -0.20637089, -0.026177134, 0.020868326, -0.4221474, -0.23026292, -0.40088287, -0.22202201, 0.669968, 0.03716477, 0.27452374, 0.5072771, 0.22496687, 0.21520524, 0.5280917, 0.74989045, 0.055406976, 0.16039418, 0.4748441, 0.5761094, 0.42399827, 0.33058864, 0.2529511, -0.11642946, 0.21557258, -0.095526755, 0.19765544, 0.17627783, -0.10864583, -0.6272027, 0.3095959, 0.11628517, -0.32549232, 0.15992586, -0.3496894, -0.1507539, -0.07744631, -0.07259594, -0.049158305, 0.30015868, -0.2151675, 0.2132264, -0.04981576, 0.26468718, 0.20340413, 0.43930435, 0.47237265, 0.5852111, 0.2840162, 0.44317606, -0.11215177, -0.022548322, -0.11230182, 0.085231505, 0.17059472, -0.06401612, -0.17434902, -0.18953, -0.055343416, -0.15373589, 0.0860697, -0.23322164, 0.034102075, 0.4409372, 0.10329613, 0.037272595, 0.18354535, 0.17745344, -0.37769714, -0.26736352, 0.16052762, -0.3016051, -0.13220088, -0.039767005, -0.26669654, 0.11853951, 0.32361478, -0.3028251, -0.548556, -0.19419393, -0.19558807, -0.103967346, 0.24311352, -0.07778529, -0.23358099, -0.3764867, -0.33181307, -0.78516716, -0.8881859, 0.27342606, 0.0015046619, -0.19008043, -0.12973543, 0.6475782, 0.4220137, -0.049118735, 0.060169987, 0.121803604, 0.29871443, 0.010795427, 0.4152924, 0.2637556, -0.108736426, -0.05046463, 0.33020145, 0.41080165, -0.08038082, 0.5407094, -0.03421138, 0.030528916, 0.510851, 0.41348624, 0.07312963, -0.20771028, 0.04442845, -0.06874755, -0.037225, -0.049697343, 0.17005403, 0.28885972, 0.18173213, -0.014873921, 0.10440031, -0.052733768, 0.015280475, -0.1894952, -0.12228982, -0.32860127, -0.061388295, 0.20310333, 0.12766974, -0.076557264, -0.089206, -0.015446551};

// fc1.bias
const float fc1_bias[16] = {
-0.4630145, 0.53895265, 0.37634254, 0.048896052, -0.06903433, -0.52595276, 0.19618979, -0.082931556, 0.41598886, -0.13819845, -0.07198861, 0.033945158, -0.014188777, 0.045061562, -0.05636206, -0.0045046713};

// fc2.weight
const float fc2_weight[160] = {
-0.44332045, 0.41746923, -0.19717479, -0.18179497, -0.033785496, 0.123762056, 0.5046187, -0.12619945, -0.53716093, 0.038474597, -0.16766046, 0.112714894, 0.18045445, 0.18065627, 0.09887722, -0.6916835, -0.7882866, 0.22561455, 0.8045727, 0.07115943, -0.13463242, -0.050712354, -0.37334758, -0.08717091, 0.37155986, -1.1071414, 0.012165141, -0.14941376, 0.07885235, 0.055968188, -0.18509008, 0.3298798, -0.5768131, -0.053747687, -0.4439437, 0.02086527, 0.57931983, -0.13214056, 0.015492247, -0.13693896, -0.37094423, -0.32697335, 0.02834712, 0.13260336, -0.17825672, -0.03332, -0.19322301, 0.2919092, -0.3994071, 0.15578204, -0.821793, 0.14258593, 0.15940055, 0.30885553, -0.6124326, -0.06588594, 0.36016074, 0.05397702, 0.22105925, -0.011313379, -0.06536866, 0.007091412, 0.27014765, 0.081944466, -0.07967626, -0.8911, 0.5532547, 0.09985754, -0.00067707186, -0.1046614, -0.16494785, -0.03591064, -0.402092, 0.31322077, -0.10081727, -0.07366794, -0.036380608, 0.13362853, 0.20783207, 0.4779614, 0.20709962, 0.36922398, 0.029160447, 0.20598185, -0.30890197, -0.5761763, -0.31036383, -0.12707683, 0.102787286, 0.17682993, 0.077862635, 0.19201969, -0.19361824, -0.13360009, 0.18484335, 0.07324109, 0.025270289, 0.1358019, -0.3654603, -0.23684244, -0.8248558, 0.26756945, 0.38193765, 0.064861335, -0.55312115, 0.041448925, -0.22690518, 0.17785212, -0.20869906, 0.0374946, 0.17183343, 0.11419705, -0.5568116, -0.75527644, -0.055169456, -0.0988511, 0.19916573, -0.48859182, -0.0547689, 0.08316693, 0.48852465, 0.20084752, 0.1745685, 0.013840087, -0.0873203, -0.036977805, 0.051598076, 0.056696832, 0.40619648, -0.2854994, -0.3509172, -0.10647625, 0.14673714, 0.20774451, 0.29206046, -0.010631707, -0.010040981, -0.3066912, -0.112371504, -0.10952078, -0.2651029, 0.123134956, -0.08188999, -0.024347108, 0.30617324, -0.27382421, 0.054334637, -0.010845275, 0.398521, 0.2379919, -0.58691746, 0.07051278, -0.17445385, 0.22359708, 0.07527282, 0.23607701, -0.2402525, 0.2199186, 0.124949515, -0.7340676};

// fc2.bias
const float fc2_bias[10] = {
-0.09339926, 0.70689833, 0.67534524, -1.0147284, -1.1442876, -0.020279616, 0.6839952, 0.31555083, -1.516668, 0.73887926};

